1.045717112720012665e-02
-6.257076561450958252e-02
5.058254115283489227e-03
-3.260068222880363464e-02
7.087542861700057983e-02
3.478185459971427917e-02
2.259877137839794159e-02
2.416451834142208099e-02
3.466707468032836914e-02
3.311355039477348328e-02
7.837623357772827148e-02
6.747904419898986816e-02
4.534075409173965454e-02
5.308060720562934875e-02
-1.776103978045284748e-03
2.425569109618663788e-02
-2.047334238886833191e-02
-1.883717067539691925e-02
-1.560503616929054260e-02
3.067753277719020844e-02
1.424848195165395737e-02
-3.558070166036486626e-03
2.422947669401764870e-03
4.033308848738670349e-02
7.163695245981216431e-02
6.315771490335464478e-02
-1.480269897729158401e-02
1.502463128417730331e-02
4.305582866072654724e-02
4.402587190270423889e-02
8.982928097248077393e-02
6.713934987783432007e-02
3.191931918263435364e-02
4.878425970673561096e-02
-2.419560216367244720e-03
7.865033112466335297e-03
8.784798532724380493e-02
4.005445912480354309e-02
3.735432028770446777e-02
-1.268364954739809036e-03
7.304511964321136475e-04
1.281369198113679886e-02
5.958161875605583191e-02
-1.446350757032632828e-02
1.478422153741121292e-02
3.382530063390731812e-02
1.085513308644294739e-01
1.115975007414817810e-01
-2.232101187109947205e-02
-4.423644568305462599e-04
-5.668261274695396423e-02
2.288967603817582130e-03
-1.740073785185813904e-02
-4.521422088146209717e-02
5.526814609766006470e-02
6.608586013317108154e-02
3.494069352746009827e-02
7.347773015499114990e-02
-1.684964448213577271e-02
-1.875778287649154663e-02
4.028747975826263428e-02
5.468649044632911682e-02
5.719348788261413574e-02
2.882627584040164948e-02
5.767134949564933777e-03
5.138217657804489136e-02
4.059370979666709900e-02
-3.153341636061668396e-02
-2.372390357777476311e-03
4.759550467133522034e-02
-1.785095594823360443e-02
4.433117061853408813e-02
-1.281107310205698013e-02
1.770425215363502502e-02
5.819411948323249817e-02
-2.368178404867649078e-02
-4.604650661349296570e-03
5.318259447813034058e-02
9.382701665163040161e-02
1.979037886485457420e-03
5.502622202038764954e-02
6.310326606035232544e-02
-1.526910904794931412e-02
6.823440641164779663e-02
4.554388672113418579e-02
-3.154049068689346313e-02
3.723403438925743103e-02
2.296417951583862305e-02
-2.165415510535240173e-02
-8.467224426567554474e-03
-2.513712830841541290e-02
-1.856051199138164520e-02
5.704242736101150513e-02
7.125768810510635376e-02
1.049710437655448914e-01
3.599132597446441650e-02
-4.013437312096357346e-03
9.689207375049591064e-02
-9.686779230833053589e-03
4.781926795840263367e-02
5.643479153513908386e-02
8.518899232149124146e-02
3.692536801099777222e-02
7.340855896472930908e-02
-9.889370761811733246e-03
9.711986035108566284e-02
4.812503233551979065e-02
9.600413031876087189e-03
8.100166916847229004e-03
-1.395399402827024460e-02
5.237778276205062866e-02
8.468019962310791016e-02
2.830497547984123230e-02
-2.174145309254527092e-03
-2.778685651719570160e-02
5.834111943840980530e-02
7.612805068492889404e-02
2.596763707697391510e-02
4.379904642701148987e-02
6.878007203340530396e-02
7.253497838973999023e-02
6.785968691110610962e-02
-3.757496178150177002e-02
7.765001058578491211e-02
1.762598752975463867e-02
-3.954888507723808289e-02
5.064041167497634888e-02
-4.609697312116622925e-02
-7.768593728542327881e-03
2.371561154723167419e-02
-4.385662078857421875e-02
4.618879407644271851e-02
-6.541087478399276733e-02
8.231385797262191772e-02
6.915729492902755737e-02
5.509223043918609619e-02
6.255389750003814697e-02
-3.268764540553092957e-02
1.532192574813961983e-03
6.608424335718154907e-02
-3.316156566143035889e-02
-6.967057939618825912e-03
3.005055896937847137e-02
2.639110386371612549e-02
5.885969474911689758e-02
-4.375739768147468567e-02
-7.197689265012741089e-03
2.064905501902103424e-02
3.235902264714241028e-02
-2.785238809883594513e-02
6.175364181399345398e-02
-2.430212870240211487e-02
4.785656556487083435e-02
8.024532347917556763e-03
5.823596939444541931e-02
3.056805580854415894e-02
7.919862866401672363e-02
1.034995540976524353e-03
5.823807045817375183e-02
-6.522618234157562256e-02
3.924226330127567053e-04
3.572840616106987000e-02
1.497611869126558304e-02
8.144063502550125122e-02
2.940815873444080353e-03
2.471936307847499847e-02
5.111573264002799988e-02
2.249662019312381744e-02
1.997972466051578522e-02
7.495194673538208008e-02
-3.427344188094139099e-02
7.337547838687896729e-02
-3.531530871987342834e-02
7.998687773942947388e-02
2.052629180252552032e-02
3.251649066805839539e-02
4.363119602203369141e-02
5.548122525215148926e-02
5.590260028839111328e-02
3.178666159510612488e-02
3.204238787293434143e-02
-1.168881170451641083e-02
3.254960849881172180e-02
8.213870972394943237e-02
8.299406617879867554e-02
-1.102096959948539734e-02
6.559023261070251465e-02
1.156576443463563919e-02
6.406887620687484741e-02
-3.903120756149291992e-02
8.062633872032165527e-02
2.495143003761768341e-02
3.962859138846397400e-02
-8.463058620691299438e-03
3.036677464842796326e-02
-2.547507733106613159e-02
-2.468533068895339966e-02
7.262976467609405518e-02
-1.056324411183595657e-02
4.224661365151405334e-02
3.562584146857261658e-02
4.353739693760871887e-02
3.274586796760559082e-02
8.097534067928791046e-03
1.587671972811222076e-02
-5.658066645264625549e-02
5.493729561567306519e-02
-1.741786673665046692e-02
7.295452058315277100e-02
-1.588018052279949188e-02
8.108905702829360962e-02
-3.001838736236095428e-02
5.799240246415138245e-02
4.685161635279655457e-02
2.937440760433673859e-02
2.936036698520183563e-02
7.557506114244461060e-02
-4.729247093200683594e-02
6.093354523181915283e-02
1.770263537764549255e-02
4.654388502240180969e-02
5.107041820883750916e-02
5.756046250462532043e-02
6.567930802702903748e-03
5.171032994985580444e-02
5.297435447573661804e-02
6.586167961359024048e-02
1.908079348504543304e-02
8.656977117061614990e-02
-2.840263023972511292e-02
3.843502700328826904e-02
3.285990655422210693e-02
1.950229890644550323e-02
7.582174148410558701e-03
6.667792797088623047e-02
-2.270635589957237244e-02
1.313228607177734375e-01
5.186720192432403564e-02
1.360243409872055054e-01
-3.194025903940200806e-02
-3.030231408774852753e-02
1.463860971853137016e-03
-3.006894327700138092e-02
3.768420591950416565e-02
5.702864006161689758e-02
3.200330957770347595e-02
3.222302347421646118e-02
6.121290102601051331e-02
1.210169494152069092e-01
8.419914543628692627e-02
-2.269339049234986305e-03
1.098888516426086426e-01
7.766877859830856323e-02
2.237853594124317169e-02
1.331195421516895294e-02
-3.241901099681854248e-02
6.690128147602081299e-02
4.940437525510787964e-02
1.247439309954643250e-01
3.654032945632934570e-03
6.385225057601928711e-02
3.263369575142860413e-02
6.078958138823509216e-02
4.035884141921997070e-02
6.017282139509916306e-03
2.946026623249053955e-02
2.169159613549709320e-02
7.592032849788665771e-02
-2.117137983441352844e-02
-1.340848021209239960e-02
4.558764025568962097e-02
8.310837671160697937e-03
-7.170509546995162964e-02
4.593668878078460693e-02
6.854787468910217285e-02
1.278781518340110779e-02
1.314496900886297226e-02
1.023369282484054565e-01
-2.277004718780517578e-02
-1.421011053025722504e-02
4.731974005699157715e-02
3.431837260723114014e-02
8.755889721214771271e-03
4.111253097653388977e-02
1.081009507179260254e-01
7.516591995954513550e-02
5.198425799608230591e-02
7.496206462383270264e-02
3.236455144360661507e-03
-2.742452779784798622e-03
1.745672896504402161e-02
7.439474761486053467e-02
-3.681006655097007751e-02
6.524704396724700928e-02
8.838929980993270874e-02
-2.413986623287200928e-02
-9.121780283749103546e-03
4.299385100603103638e-02
-4.123572632670402527e-02
-2.481723204255104065e-02
6.125156069174408913e-04
2.190110459923744202e-02
3.369481116533279419e-02
1.382137183099985123e-02
3.408405184745788574e-02
5.112641956657171249e-03
1.109590195119380951e-02
-1.968510448932647705e-02
6.820435822010040283e-02
-5.381694436073303223e-02
3.008356317877769470e-02
3.546148166060447693e-02
-7.049276679754257202e-02
6.649893522262573242e-02
6.992042064666748047e-02
6.697173416614532471e-02
-4.803448542952537537e-02
-1.322701480239629745e-02
6.610352545976638794e-02
8.194061368703842163e-02
3.663206845521926880e-02
8.436837792396545410e-02
-5.439906381070613861e-03
4.247519373893737793e-02
-4.709284007549285889e-02
1.087379977107048035e-01
4.991841269657015800e-04
3.594502061605453491e-02
5.102220550179481506e-02
2.769804373383522034e-02
8.283339440822601318e-02
3.065537475049495697e-02
1.068158000707626343e-01
1.600868813693523407e-02
6.102310866117477417e-02
2.796543948352336884e-02
5.378108099102973938e-02
-1.780161820352077484e-02
6.044745817780494690e-02
-4.105583205819129944e-02
1.788158342242240906e-02
6.490472704172134399e-02
-3.442826494574546814e-02
5.612411350011825562e-02
1.051581092178821564e-02
1.066754199564456940e-02
-2.401455771178007126e-03
4.540583491325378418e-02
-3.497395664453506470e-02
-7.251149043440818787e-03
8.328046649694442749e-02
8.183987438678741455e-02
-2.816588059067726135e-02
8.486365526914596558e-02
-1.709111221134662628e-02
4.116289317607879639e-02
9.804752469062805176e-02
6.105794012546539307e-02
7.907416671514511108e-02
8.851427584886550903e-02
-5.818337947130203247e-02
1.010743826627731323e-01
4.620652645826339722e-03
5.564233288168907166e-02
4.793243110179901123e-02
3.705354407429695129e-02
8.588048513047397137e-04
5.107937031425535679e-04
6.896996498107910156e-02
6.574410200119018555e-02
1.884283125400543213e-02
6.867117434740066528e-02
1.066880226135253906e-01
5.201204121112823486e-02
-2.042310312390327454e-03
7.734533399343490601e-02
2.641633339226245880e-02
2.308733202517032623e-02
-6.053959205746650696e-02
7.741350680589675903e-02
2.293899469077587128e-02
7.171555422246456146e-03
-4.048581235110759735e-03
1.903389021754264832e-02
2.646773681044578552e-02
6.815973320044577122e-04
9.338978677988052368e-02
-1.336050964891910553e-02
-6.526484619826078415e-03
3.433028236031532288e-02
3.479193523526191711e-02
-5.392560735344886780e-02
6.631843745708465576e-02
2.841962734237313271e-03
4.598885774612426758e-02
6.427653599530458450e-03
7.756831496953964233e-02
5.610725842416286469e-03
8.147130906581878662e-02
3.715135529637336731e-02
-2.305382862687110901e-02
5.170794203877449036e-02
2.691514045000076294e-02
-4.677797481417655945e-02
3.985910862684249878e-02
1.370083354413509369e-02
1.304059922695159912e-01
4.694182798266410828e-02
3.466017916798591614e-02
2.944979444146156311e-02
-2.957928739488124847e-02
-3.581217303872108459e-02
1.524667721241712570e-03
3.671292960643768311e-02
1.277391705662012100e-02
5.511542782187461853e-02
-2.651127241551876068e-02
4.400451853871345520e-02
3.091066516935825348e-02
7.241147011518478394e-02
-2.115668728947639465e-02
1.022667856886982918e-03
2.197062969207763672e-02
7.435388863086700439e-02
4.784505814313888550e-02
4.438683390617370605e-02
3.183979913592338562e-02
-3.501931205391883850e-02
5.420086905360221863e-02
3.288851678371429443e-02
6.777849793434143066e-02
-7.303158938884735107e-02
-5.647633597254753113e-02
-3.588418941944837570e-03
5.059774965047836304e-02
1.045978292822837830e-01
-1.106810290366411209e-02
3.292172774672508240e-02
1.242879405617713928e-01
-1.840500277467072010e-03
6.755107641220092773e-02
8.019761182367801666e-03
2.908024750649929047e-02
9.547335794195532799e-04
6.727756559848785400e-02
-6.700506433844566345e-03
9.147665649652481079e-02
1.539453398436307907e-02
-9.239774197340011597e-03
7.404978573322296143e-02
3.237201273441314697e-02
1.062812004238367081e-02
-3.029728680849075317e-02
1.106720155803486705e-04
1.707746833562850952e-02
-6.251027435064315796e-02
6.373622268438339233e-02
2.500662393867969513e-02
5.170853808522224426e-02
7.203280925750732422e-02
-4.446404427289962769e-02
-2.080737799406051636e-02
-1.498321909457445145e-02
4.827297851443290710e-02
5.535551905632019043e-02
-3.672509267926216125e-02
7.259462773799896240e-02
1.000178158283233643e-01
3.249649191275238991e-03
7.425320893526077271e-02
7.050048559904098511e-02
2.476476877927780151e-02
2.588068693876266479e-02
5.322611704468727112e-02
9.237875789403915405e-02
-1.961444504559040070e-02
5.798270180821418762e-02
2.674424462020397186e-02
1.659270934760570526e-02
8.898025751113891602e-02
-4.024828597903251648e-02
7.008529454469680786e-02
-3.261772543191909790e-02
1.222257465124130249e-01
1.225980520248413086e-01
5.921421200037002563e-02
3.272558795288205147e-03
5.928915739059448242e-02
3.235264495015144348e-02
8.107163012027740479e-02
2.683978341519832611e-02
5.069964379072189331e-02
8.301463723182678223e-02
7.930061221122741699e-02
7.504490762948989868e-02
-5.254359450191259384e-03
5.424216017127037048e-02
7.964008301496505737e-02
6.761720776557922363e-02
1.687854714691638947e-02
3.886000812053680420e-02
2.849565446376800537e-02
6.058694422245025635e-02
6.615998595952987671e-02
1.139818318188190460e-02
4.424695298075675964e-02
6.719287484884262085e-02
3.904143720865249634e-02
-3.067537024617195129e-02
1.878907531499862671e-02
2.119178324937820435e-02
2.041562646627426147e-02
1.026115752756595612e-02
9.001181274652481079e-02
-1.367489062249660492e-02
-9.162481874227523804e-03
-4.190606251358985901e-02
-1.428701262921094894e-02
-6.181779783219099045e-03
-3.804222494363784790e-02
1.091050356626510620e-01
5.149675160646438599e-02
6.194393336772918701e-02
-6.216815859079360962e-02
-5.346573889255523682e-02
5.040802061557769775e-02
2.803882351145148277e-03
-1.195431780070066452e-02
1.691067824140191078e-03
-3.848638013005256653e-02
3.321138769388198853e-02
2.550499141216278076e-02
2.170500159263610840e-02
1.320327632129192352e-02
1.459889393299818039e-02
-4.027849435806274414e-02
-4.979050904512405396e-02
5.073526874184608459e-02
1.677879504859447479e-02
-1.507830247282981873e-02
1.059562712907791138e-02
-7.630725856870412827e-03
1.825338788330554962e-02
6.557307392358779907e-02
2.241905033588409424e-02
-2.455059206113219261e-03
-3.891818597912788391e-02
6.321729719638824463e-02
-1.608306169509887695e-02
-4.073731601238250732e-02
2.376969344913959503e-02
-3.637932240962982178e-02
-3.493083640933036804e-03
-2.524072863161563873e-02
-6.434574723243713379e-02
6.660288572311401367e-02
2.557516656816005707e-02
-7.558003067970275879e-02
-5.908268317580223083e-02
-2.872677333652973175e-02
1.031045839190483093e-01
7.059123367071151733e-02
-1.139373425394296646e-02
-1.259776949882507324e-02
1.056488081812858582e-01
1.647089980542659760e-02
1.464932505041360855e-02
-1.566758938133716583e-02
-5.214321613311767578e-02
1.565667986869812012e-02
2.076256647706031799e-02
1.299952436238527298e-02
5.391500145196914673e-02
-5.151039734482765198e-02
-1.714922301471233368e-02
8.650245517492294312e-02
5.473241582512855530e-02
4.996086284518241882e-02
2.456830441951751709e-02
-3.498572483658790588e-02
-7.862004451453685760e-03
1.282789453398436308e-04
-5.181314796209335327e-02
-1.225941628217697144e-02
1.406278274953365326e-02
6.048981845378875732e-02
-8.788499981164932251e-03
-1.381702627986669540e-02
-3.788684308528900146e-02
3.848639503121376038e-02
7.159582339227199554e-03
3.643935173749923706e-02
-6.793333590030670166e-02
4.481260478496551514e-02
7.810373604297637939e-02
-1.134784985333681107e-02
-1.772669330239295959e-02
1.457339990884065628e-02
3.781314939260482788e-03
-7.284145057201385498e-02
4.649391397833824158e-02
4.686743766069412231e-02
-3.494057571515440941e-03
5.303446948528289795e-02
3.637121990323066711e-02
1.241885870695114136e-02
8.321807254105806351e-04
4.372334480285644531e-02
2.710902597755193710e-03
-6.688184291124343872e-02
-1.263286825269460678e-02
9.952249005436897278e-03
1.187298260629177094e-02
1.411456242203712463e-02
7.149985432624816895e-02
6.147367507219314575e-02
4.492758959531784058e-02
7.658296823501586914e-02
-5.737012997269630432e-02
-1.491154893301427364e-03
6.528410315513610840e-02
-6.572341173887252808e-02
2.497790940105915070e-02
-6.307753175497055054e-02
-9.560343809425830841e-03
5.034590885043144226e-02
7.375840842723846436e-02
-1.538537163287401199e-02
5.943511426448822021e-02
7.726161181926727295e-02
5.226950347423553467e-02
5.373251624405384064e-03
-1.111978851258754730e-02
8.924617618322372437e-02
2.871192805469036102e-02
4.047954827547073364e-02
5.390000715851783752e-02
4.008824378252029419e-02
1.242203987203538418e-03
-3.147375211119651794e-02
3.510348731651902199e-03
-7.083780318498611450e-02
6.017056480050086975e-02
2.386065199971199036e-02
5.613533034920692444e-02
-5.811748653650283813e-02
1.355067174881696701e-02
-7.584999501705169678e-02
-3.923521435353904963e-04
3.219833597540855408e-02
4.754284396767616272e-02
1.643684692680835724e-02
5.399088934063911438e-02
6.910087168216705322e-02
7.744239643216133118e-03
7.547312998212873936e-04
-3.446429595351219177e-02
3.417546674609184265e-02
4.521449655294418335e-02
4.785509034991264343e-02
4.963588342070579529e-02
-4.016330838203430176e-02
6.346811354160308838e-02
8.712459355592727661e-02
-4.866477847099304199e-02
7.282508537173271179e-03
-6.388245522975921631e-02
-4.676188528537750244e-02
-8.091783151030540466e-03
7.171884924173355103e-02
4.682976752519607544e-02
-1.927490159869194031e-02
1.678479090332984924e-02
4.814373794943094254e-03
2.616656199097633362e-02
1.462319213896989822e-02
2.003927016630768776e-03
-2.014335058629512787e-02
4.754147958010435104e-03
2.647787146270275116e-02
1.779563724994659424e-02
9.878149628639221191e-02
-1.753162965178489685e-02
4.173409938812255859e-02
-1.582353375852108002e-02
-6.427881121635437012e-02
7.743448764085769653e-02
-1.562002021819353104e-02
1.924643106758594513e-02
-1.841375418007373810e-02
1.126918289810419083e-02
-2.748609706759452820e-02
-4.260068014264106750e-02
7.479110360145568848e-02
-7.399870455265045166e-02
2.293336903676390648e-03
6.282769143581390381e-02
-2.207924844697117805e-03
1.471705827862024307e-02
2.050474844872951508e-02
3.179734805598855019e-03
-1.931936480104923248e-02
-5.540803074836730957e-02
-1.246167812496423721e-02
5.171051248908042908e-02
4.970341548323631287e-02
5.799628328531980515e-03
4.292737320065498352e-02
3.054081648588180542e-02
3.511108458042144775e-03
6.284955143928527832e-02
-9.033837914466857910e-02
7.774724066257476807e-02
8.990482240915298462e-02
7.406447082757949829e-03
-5.699696950614452362e-03
-1.801676489412784576e-02
9.234689176082611084e-03
7.503786683082580566e-02
-2.099984139204025269e-02
-2.224724041298031807e-03
2.742002345621585846e-02
2.760688308626413345e-03
3.492464777082204819e-03
4.999878257513046265e-02
6.573071237653493881e-03
-7.736097555607557297e-03
6.374910473823547363e-02
-1.479955483227968216e-02
8.663775026798248291e-02
-1.940714940428733826e-02
-1.444711443036794662e-02
5.887508019804954529e-02
4.194571822881698608e-02
-3.485868126153945923e-02
1.298510748893022537e-02
1.876275800168514252e-02
-4.910599905997514725e-03
9.491392411291599274e-03
7.911913841962814331e-02
6.913518160581588745e-02
1.784509792923927307e-02
-1.133940182626247406e-02
4.097718000411987305e-02
9.492488577961921692e-03
1.762216538190841675e-02
-2.006679959595203400e-02
5.099195241928100586e-02
-7.299672067165374756e-02
-1.525184977799654007e-02
2.706143073737621307e-02
2.246011421084403992e-02
6.538628786802291870e-02
3.394879400730133057e-02
-3.661845996975898743e-02
-1.272818725556135178e-02
7.824464887380599976e-02
2.795966900885105133e-02
3.304690122604370117e-02
6.896468997001647949e-02
-2.983867935836315155e-02
-6.948351860046386719e-03
4.647550359368324280e-02
-3.392967954277992249e-02
7.078411988914012909e-03
-5.587349086999893188e-02
2.373440377414226532e-02
-1.748149096965789795e-02
-3.375361440703272820e-03
-7.606121152639389038e-02
-5.252890288829803467e-02
-5.346962064504623413e-02
3.216250613331794739e-02
-5.269068852066993713e-02
-7.081020623445510864e-02
-1.644069515168666840e-02
-6.616695970296859741e-02
-7.617153972387313843e-02
2.466832660138607025e-02
3.952920064330101013e-02
-5.398714169859886169e-02
-7.991355657577514648e-02
-1.007178425788879395e-01
3.661673748865723610e-03
-5.081561580300331116e-02
3.390040248632431030e-02
-1.905563473701477051e-02
-2.896276116371154785e-02
-3.374448791146278381e-02
-7.943908870220184326e-02
-1.351573020219802856e-01
-4.278100095689296722e-03
-2.763546630740165710e-02
-3.030554391443729401e-02
-2.312285266816616058e-02
-2.503653615713119507e-02
4.547218605875968933e-02
-9.842634201049804688e-02
7.417757296934723854e-04
-6.498058792203664780e-03
-2.790351957082748413e-02
3.725410904735326767e-03
-6.879067420959472656e-02
-1.902082236483693123e-03
-2.991975052282214165e-03
-1.235007680952548981e-02
-4.154820740222930908e-02
-1.331092789769172668e-02
-7.829497568309307098e-03
2.078732103109359741e-02
6.279961019754409790e-02
-5.380967631936073303e-03
2.435923181474208832e-02
2.018073201179504395e-02
-1.241464018821716309e-01
-1.575721253175288439e-04
2.798364497721195221e-02
-2.760078944265842438e-02
-1.314691901206970215e-01
-1.022658273577690125e-01
-1.256354749202728271e-01
-1.612520404160022736e-02
-8.133829385042190552e-02
7.577789016067981720e-03
-4.596178233623504639e-02
-3.673573955893516541e-02
-9.395778179168701172e-02
-6.110167503356933594e-02
-5.180974304676055908e-02
1.813477650284767151e-02
-6.555278599262237549e-02
-4.362538084387779236e-02
-2.594784833490848541e-02
-1.959117315709590912e-02
3.575575724244117737e-02
4.721466824412345886e-02
-2.194141596555709839e-02
-1.062450408935546875e-01
-1.118719726800918579e-01
-5.175256729125976562e-02
-1.408539414405822754e-01
-8.238700777292251587e-02
-2.250896953046321869e-02
8.872162550687789917e-03
-8.163812011480331421e-02
-3.021856583654880524e-02
-5.829117074608802795e-02
-9.933422505855560303e-02
-7.697204500436782837e-02
-3.772044554352760315e-02
-5.878826975822448730e-02
-9.546998888254165649e-03
-7.384087145328521729e-02
-5.959180742502212524e-02
-6.129431724548339844e-02
-1.745901256799697876e-02
-4.458911716938018799e-03
-8.627154678106307983e-02
-9.389554709196090698e-02
3.577923402190208435e-02
-6.232078373432159424e-02
2.170163393020629883e-02
-8.309969305992126465e-02
-2.595281600952148438e-02
3.864935785531997681e-02
-2.900990657508373260e-02
-5.950924381613731384e-02
-3.619206696748733521e-02
1.769489957951009274e-03
-1.288685016334056854e-02
-6.619689613580703735e-02
-8.354838006198406219e-03
-1.309169083833694458e-02
-7.698122411966323853e-02
2.557371370494365692e-02
-9.859924018383026123e-02
2.477276325225830078e-02
-5.653687193989753723e-02
-5.402237549424171448e-02
1.549373194575309753e-02
-5.289400741457939148e-02
-6.840597838163375854e-02
-6.165610626339912415e-02
-7.143635302782058716e-02
-1.006932333111763000e-01
-5.580470338463783264e-02
-1.106012463569641113e-01
2.438100986182689667e-02
9.844906628131866455e-02
-3.918027877807617188e-02
-5.727884545922279358e-02
-3.736251965165138245e-02
-6.586067378520965576e-02
9.842528961598873138e-03
-9.745863080024719238e-02
-6.241530925035476685e-02
-8.590209484100341797e-02
3.980275988578796387e-02
-5.651992931962013245e-02
-1.137880161404609680e-01
-1.073045730590820312e-01
-9.377373382449150085e-03
-1.515919342637062073e-02
-6.332815438508987427e-02
1.191495824605226517e-02
-3.070421516895294189e-02
-5.097645148634910583e-02
-3.979208320379257202e-02
-3.020275011658668518e-02
-4.657968133687973022e-02
-1.118254289031028748e-01
-6.522645801305770874e-02
-1.202882826328277588e-01
-5.428877845406532288e-02
5.033019930124282837e-03
-1.317732781171798706e-01
-4.970753192901611328e-02
-8.200196176767349243e-02
-8.095829933881759644e-02
-6.036715209484100342e-02
-2.272001095116138458e-02
-1.280347071588039398e-02
-7.060705125331878662e-02
-3.976407274603843689e-02
-4.793662950396537781e-02
-1.218269243836402893e-01
-1.492318212985992432e-01
-1.074199602007865906e-01
4.660840332508087158e-02
-6.806433200836181641e-02
1.330196391791105270e-02
-1.856118738651275635e-01
-2.009251900017261505e-02
1.495969668030738831e-02
-1.520625650882720947e-01
-7.122855633497238159e-02
-1.537695825099945068e-01
-1.137736737728118896e-01
-8.802578784525394440e-03
-3.919221833348274231e-02
-1.242527887225151062e-01
5.914346873760223389e-02
-4.925170168280601501e-02
-7.640895992517471313e-02
1.774712465703487396e-02
-3.238289058208465576e-02
-2.970797382295131683e-02
-7.942722737789154053e-02
9.416753309778869152e-04
-2.880961820483207703e-02
-9.857159107923507690e-03
-1.877213269472122192e-02
7.250804454088211060e-03
-6.587503850460052490e-02
-4.313934221863746643e-02
-7.765533030033111572e-02
-5.454828962683677673e-02
-1.121433079242706299e-01
2.103040739893913269e-02
2.533432270865887403e-04
-1.273036748170852661e-01
-7.307949662208557129e-02
-8.545553311705589294e-03
-4.903714358806610107e-02
-1.478650271892547607e-01
6.409487873315811157e-02
-6.672838330268859863e-02
1.029364764690399170e-02
-3.273358941078186035e-02
-9.715817123651504517e-02
-1.116726398468017578e-01
-1.073037683963775635e-01
-9.683784097433090210e-02
-3.791966661810874939e-02
-6.032699346542358398e-02
-4.439133405685424805e-02
-6.139799952507019043e-02
-1.046579517424106598e-02
-1.037734970450401306e-01
-3.656371682882308960e-02
-6.704454123973846436e-02
-2.441363222897052765e-02
-8.435018360614776611e-02
4.613028466701507568e-02
2.733265794813632965e-02
1.544945128262042999e-02
1.980679295957088470e-02
-1.186772733926773071e-01
-8.788632601499557495e-02
-4.430201835930347443e-03
1.899774651974439621e-03
-4.075096175074577332e-02
4.862279444932937622e-02
-6.500393152236938477e-02
-9.992894530296325684e-02
-6.770292669534683228e-02
1.262637972831726074e-02
-7.949227467179298401e-03
-3.681956976652145386e-02
-9.449734538793563843e-02
-3.284400328993797302e-02
-8.799772709608078003e-02
-6.869211047887802124e-02
-7.809498906135559082e-02
1.410780660808086395e-02
-4.423767328262329102e-02
-5.382147803902626038e-02
-2.389082685112953186e-02
-1.002038493752479553e-01
-5.177000537514686584e-02
-1.181068047881126404e-01
-2.210395038127899170e-02
8.990345522761344910e-03
-6.452885270118713379e-02
7.845116779208183289e-03
-1.737219863571226597e-03
4.156693071126937866e-02
2.299596555531024933e-03
-1.299398690462112427e-01
5.244457349181175232e-02
1.742793433368206024e-02
1.809118501842021942e-02
-7.274412363767623901e-02
-1.926892809569835663e-02
1.190754175186157227e-01
6.880275160074234009e-02
8.396826684474945068e-02
1.437235623598098755e-01
1.268867999315261841e-01
5.253349244594573975e-02
9.325121343135833740e-02
2.070013247430324554e-02
1.144601106643676758e-01
9.587827324867248535e-02
-1.816460862755775452e-02
-2.695847302675247192e-02
9.974893182516098022e-02
6.126062572002410889e-02
1.263463795185089111e-01
8.281564712524414062e-02
1.372746676206588745e-01
6.791767477989196777e-02
2.205519974231719971e-01
1.223955675959587097e-01
-3.043372184038162231e-02
1.045041307806968689e-01
3.890703618526458740e-02
5.518057197332382202e-02
-1.432800479233264923e-02
2.940858528017997742e-02
5.434779822826385498e-02
7.764945924282073975e-02
1.255542486906051636e-01
5.569021403789520264e-02
3.855346888303756714e-02
1.091630011796951294e-01
4.809928312897682190e-02
5.384659767150878906e-02
1.038462445139884949e-01
1.074685901403427124e-01
6.147695705294609070e-02
7.023462653160095215e-02
8.620069175958633423e-02
4.701695591211318970e-02
1.343162655830383301e-01
1.089526712894439697e-01
-1.320380624383687973e-02
8.052195608615875244e-02
9.591841697692871094e-02
1.178119406104087830e-01
7.188840210437774658e-02
7.800357788801193237e-02
5.926386639475822449e-02
6.936375051736831665e-02
7.027491182088851929e-02
3.263101354241371155e-02
7.728838920593261719e-02
2.375417016446590424e-02
1.760715395212173462e-01
7.515443861484527588e-02
-2.116292156279087067e-02
8.963131904602050781e-02
1.003243774175643921e-01
1.270670145750045776e-01
5.509790778160095215e-02
1.197454258799552917e-01
3.676240518689155579e-02
2.268958278000354767e-02
6.930004805326461792e-02
3.943030908703804016e-02
5.687464028596878052e-02
5.047368630766868591e-02
7.711741328239440918e-02
8.500414341688156128e-02
9.061371535062789917e-02
2.563538216054439545e-02
8.043345063924789429e-02
3.021665289998054504e-02
7.240477204322814941e-02
1.436170339584350586e-01
7.630632817745208740e-02
9.732488542795181274e-02
9.031150490045547485e-02
1.239328235387802124e-01
1.615456938743591309e-01
-1.091007143259048462e-02
1.430246233940124512e-01
8.688885718584060669e-02
1.419296413660049438e-01
1.374404579401016235e-01
5.897979810833930969e-02
7.656392455101013184e-02
4.544845968484878540e-02
1.081113796681165695e-02
6.751476973295211792e-02
2.125443145632743835e-02
5.089806020259857178e-02
3.612621501088142395e-02
7.111668586730957031e-02
8.206904679536819458e-02
1.223482266068458557e-01
4.986888170242309570e-02
6.950569897890090942e-02
3.937904909253120422e-02
1.431414932012557983e-01
5.189962685108184814e-02
3.920210152864456177e-02
4.901260137557983398e-03
8.773528039455413818e-02
5.765582248568534851e-02
1.278770714998245239e-01
9.006780385971069336e-02
-1.106273382902145386e-02
6.783069670200347900e-02
1.629734039306640625e-01
1.430633664131164551e-02
-2.104707621037960052e-02
8.288011699914932251e-02
8.020831644535064697e-02
8.005494624376296997e-02
3.896585479378700256e-02
7.307197898626327515e-02
1.008736789226531982e-01
-3.132148832082748413e-02
8.675993233919143677e-02
7.229720056056976318e-02
1.149114966392517090e-01
5.897739902138710022e-02
9.285090118646621704e-02
-5.642598494887351990e-03
8.483660221099853516e-02
6.048014014959335327e-02
1.371089071035385132e-01
1.866068877279758453e-02
2.357091940939426422e-02
2.955353260040283203e-02
8.760071545839309692e-02
-3.314186260104179382e-02
2.142574265599250793e-02
5.380030721426010132e-02
5.470316112041473389e-02
2.601616643369197845e-02
1.612879782915115356e-01
1.778301969170570374e-02
4.441114142537117004e-02
1.016270667314529419e-01
1.121073216199874878e-01
6.491589546203613281e-02
7.041720300912857056e-02
9.151102602481842041e-02
3.868795931339263916e-02
9.910023212432861328e-02
9.089040569961071014e-03
7.298064231872558594e-02
-7.521917670965194702e-02
7.972147315740585327e-02
9.852939099073410034e-02
9.758504480123519897e-02
5.684457253664731979e-03
1.322260648012161255e-01
1.340334862470626831e-01
1.001919358968734741e-01
7.630559056997299194e-02
2.400653250515460968e-02
8.792548626661300659e-02
9.076926857233047485e-02
3.462826460599899292e-02
9.945762157440185547e-02
1.037388369441032410e-01
-1.066562370397150517e-03
5.139615014195442200e-02
1.006875336170196533e-01
3.129756310954689980e-03
9.638062119483947754e-02
2.289711497724056244e-02
7.582002133131027222e-02
2.624444849789142609e-02
3.375726938247680664e-02
1.316127777099609375e-01
6.474031507968902588e-02
3.495731949806213379e-02
8.616023510694503784e-02
3.069206885993480682e-02
1.292692311108112335e-02
-2.054301276803016663e-02
9.295631200075149536e-02
8.505763113498687744e-02
1.370404064655303955e-01
3.185046091675758362e-02
4.703602567315101624e-02
2.686888724565505981e-02
1.043867394328117371e-01
-2.136625116690993309e-04
3.562850877642631531e-02
5.955294892191886902e-02
7.974309474229812622e-02
7.465571910142898560e-02
2.985629439353942871e-02
4.624731466174125671e-02
4.291567206382751465e-02
1.094219759106636047e-01
4.473036155104637146e-02
7.203673571348190308e-02
1.259404793381690979e-02
7.250336557626724243e-02
8.995588123798370361e-02
7.486809790134429932e-02
2.487025037407875061e-02
2.238416485488414764e-02
5.451202020049095154e-02
3.810659795999526978e-02
1.496893018484115601e-01
6.200784817337989807e-02
7.055012881755828857e-02
8.168262243270874023e-02
3.129617869853973389e-02
5.672028660774230957e-02
8.468016237020492554e-02
7.383076101541519165e-02
6.940826773643493652e-02
9.367801249027252197e-02
8.806335180997848511e-02
6.172614917159080505e-02
1.670888811349868774e-01
5.547773092985153198e-02
1.047435682266950607e-02
-2.926349081099033356e-02
1.412908881902694702e-01
5.821033567190170288e-02
1.090038493275642395e-01
1.226464509963989258e-01
1.183315762318670750e-04
8.317121118307113647e-02
4.883877187967300415e-02
5.256969481706619263e-02
6.976600736379623413e-02
4.446572437882423401e-02
1.262871026992797852e-01
3.678021207451820374e-02
1.386525034904479980e-01
5.076055228710174561e-02
3.824846073985099792e-02
6.302352994680404663e-02
9.171706438064575195e-02
5.593714118003845215e-02
1.158865615725517273e-01
1.067162603139877319e-01
9.352594614028930664e-02
3.547131270170211792e-02
5.931127816438674927e-02
3.680831938982009888e-02
1.108788698911666870e-01
7.244452834129333496e-02
4.986192286014556885e-02
1.680917292833328247e-01
2.252756990492343903e-02
1.247547939419746399e-02
1.525687873363494873e-01
1.580834537744522095e-01
9.641134738922119141e-02
-1.156407892704010010e-01
-1.944976113736629486e-02
-4.831203818321228027e-02
-2.990675717592239380e-02
-6.334652006626129150e-02
-3.179783374071121216e-02
-9.055534750223159790e-02
-2.715277671813964844e-02
-9.480513632297515869e-03
1.865897141396999359e-02
-1.600471697747707367e-02
-3.331177681684494019e-02
-4.447354376316070557e-02
-1.000488325953483582e-01
-2.486635744571685791e-02
-7.550088316202163696e-02
-6.344320625066757202e-02
-1.172598898410797119e-01
-6.296961009502410889e-02
-1.003055498003959656e-01
9.738913737237453461e-03
-9.741015732288360596e-02
4.022841155529022217e-02
-8.709428459405899048e-02
-2.798828110098838806e-02
2.062274701893329620e-02
-5.631081387400627136e-02
-4.548009485006332397e-02
-8.083876222372055054e-02
-3.134270012378692627e-02
-9.196891635656356812e-02
-4.685474559664726257e-02
-2.705295383930206299e-02
-7.185306400060653687e-02
2.275391295552253723e-02
-6.199336051940917969e-02
-9.098997712135314941e-02
-7.554281502962112427e-02
2.246613427996635437e-02
-2.624983899295330048e-02
-8.741302043199539185e-02
-8.571310341358184814e-02
-8.526355773210525513e-02
-4.092482384294271469e-03
-8.358512073755264282e-02
-6.491782516241073608e-02
-4.785921890288591385e-03
-2.359098941087722778e-02
-8.809205144643783569e-03
-5.318589881062507629e-02
-8.540468662977218628e-02
-9.667541831731796265e-02
-3.446748480200767517e-02
-7.782920729368925095e-04
-8.906846493482589722e-02
-8.677688986063003540e-02
-6.833183765411376953e-02
-6.777857989072799683e-02
-3.030534647405147552e-02
-6.293413043022155762e-02
-5.034757032990455627e-02
-7.008104585111141205e-03
2.348699374124407768e-03
-1.021967362612485886e-02
-6.117346882820129395e-02
-4.409810528159141541e-02
-8.460523188114166260e-02
-1.290194876492023468e-02
-2.159272693097591400e-02
-3.858264908194541931e-02
-4.992394149303436279e-02
-1.468505896627902985e-02
-4.097696393728256226e-02
-3.359109535813331604e-02
-1.607161015272140503e-01
-3.384679928421974182e-02
-6.721784919500350952e-02
-7.266709208488464355e-02
-2.770561166107654572e-02
-6.013721600174903870e-02
2.339050360023975372e-02
-2.031070366501808167e-02
-5.722793564200401306e-02
-8.806654065847396851e-02
-7.143458724021911621e-02
-5.068777501583099365e-02
-4.752492532134056091e-02
-4.895335063338279724e-02
-6.018723547458648682e-02
-9.693724662065505981e-02
-3.575818613171577454e-02
-4.613042995333671570e-02
3.036401001736521721e-03
-8.112169802188873291e-02
-1.006449460983276367e-01
-7.512777298688888550e-02
-1.804785430431365967e-02
-5.030009523034095764e-02
-4.336506128311157227e-02
-6.620598956942558289e-03
-1.158677637577056885e-01
-8.644068241119384766e-02
-4.096234217286109924e-02
3.934759180992841721e-03
-2.916532009840011597e-02
-4.009696096181869507e-02
-3.585658594965934753e-02
-1.617315784096717834e-02
-4.055226966738700867e-02
-4.621498810593038797e-04
-5.502295494079589844e-02
-6.351412832736968994e-02
1.914972066879272461e-02
-6.336466223001480103e-02
-2.796391397714614868e-02
-4.641601070761680603e-02
-5.300871655344963074e-02
-1.012389883399009705e-01
5.515276570804417133e-04
5.269334465265274048e-02
-1.285287588834762573e-01
-2.628091024234890938e-03
-5.493325367569923401e-02
-4.254289716482162476e-02
-1.085871309041976929e-01
2.585360780358314514e-03
-6.270369142293930054e-02
6.296772044152021408e-03
-3.117648698389530182e-02
-5.362836644053459167e-02
5.670458544045686722e-03
-3.093436919152736664e-02
-5.604697763919830322e-02
-1.240157615393400192e-02
-1.192731261253356934e-01
-3.040151670575141907e-02
5.756885558366775513e-02
-7.379394024610519409e-02
-7.308578491210937500e-02
-2.763746306300163269e-02
-4.215772077441215515e-02
-4.554871842265129089e-02
-6.517151743173599243e-02
-1.250600535422563553e-02
-1.520019210875034332e-02
-1.341557204723358154e-01
-1.247845143079757690e-01
-2.656867727637290955e-03
-3.367232531309127808e-02
8.487339131534099579e-03
8.218883536756038666e-03
-3.985589370131492615e-02
-6.846895813941955566e-02
-2.601602487266063690e-02
-3.841936588287353516e-02
-3.726974502205848694e-02
-9.855806082487106323e-02
1.624968461692333221e-02
-4.853566363453865051e-02
-6.901288032531738281e-02
-9.942679107189178467e-02
-5.343815684318542480e-02
-6.994847953319549561e-02
-2.070360630750656128e-02
-6.623709201812744141e-02
-2.619251608848571777e-02
-3.241490572690963745e-02
-5.397224053740501404e-02
-5.968122556805610657e-02
-1.758085750043392181e-02
3.299063444137573242e-02
-4.734573885798454285e-02
-8.253601193428039551e-02
-8.590027689933776855e-02
-8.349814452230930328e-03
-2.297308295965194702e-02
-1.001313850283622742e-01
8.732494898140430450e-03
-6.297506392002105713e-02
-4.448908194899559021e-02
-2.568602748215198517e-02
6.123113911598920822e-03
-2.129791863262653351e-02
-6.076492741703987122e-02
-4.315291717648506165e-02
-3.779144585132598877e-02
-1.644613593816757202e-02
-5.996439233422279358e-02
-3.991286829113960266e-02
-1.462615281343460083e-02
-8.337641507387161255e-02
-1.666516624391078949e-02
-3.576403483748435974e-02
-5.252487957477569580e-03
-5.233843252062797546e-02
-5.142481252551078796e-02
-4.855565726757049561e-03
-1.081687882542610168e-01
-3.252059966325759888e-02
-1.050288677215576172e-01
-7.342360913753509521e-02
-6.237201392650604248e-02
-7.365904748439788818e-02
-5.789491534233093262e-02
8.481996133923530579e-03
-3.295226767659187317e-02
-3.752212226390838623e-02
-4.200078919529914856e-02
-6.151781976222991943e-02
-5.997529625892639160e-02
-2.621191367506980896e-02
-9.802033752202987671e-02
-2.303377725183963776e-02
9.555359371006488800e-03
-5.524133890867233276e-02
-1.370813250541687012e-01
-1.802097707986831665e-01
-1.365798264741897583e-01
-9.833884239196777344e-02
-3.441077657043933868e-03
-1.174238137900829315e-02
-1.831801794469356537e-02
-1.580846868455410004e-02
-6.585832685232162476e-02
-1.013503223657608032e-02
-6.738464534282684326e-02
2.318097278475761414e-02
-1.894027926027774811e-02
-9.372539818286895752e-03
-9.718102961778640747e-02
-7.092341035604476929e-02
-3.659680858254432678e-02
-5.662269890308380127e-02
1.184421684592962265e-02
-7.195024937391281128e-02
-3.663742914795875549e-02
-5.492898449301719666e-02
-9.275704622268676758e-02
-1.577691733837127686e-01
-3.820370510220527649e-02
-1.749964617192745209e-02
-4.793130978941917419e-02
-6.419220566749572754e-02
-4.919164255261421204e-02
-1.082788407802581787e-01
-6.129359826445579529e-02
-6.610643863677978516e-02
-1.027448326349258423e-01
-1.015783697366714478e-01
-3.040368668735027313e-02
-5.432617664337158203e-02
-8.463673293590545654e-02
-8.893566578626632690e-02
-5.277258902788162231e-02
-7.314961403608322144e-02
-2.740217186510562897e-02
-8.700822293758392334e-02
4.920319654047489166e-03
-8.432123064994812012e-02
-1.033245995640754700e-01
-4.774385690689086914e-02
-1.990477927029132843e-02
-3.529966995120048523e-02
-1.270096451044082642e-01
-2.730812318623065948e-02
-1.248397082090377808e-01
-1.382791399955749512e-01
2.471449226140975952e-02
-3.208148851990699768e-02
5.198833346366882324e-02
-4.771843925118446350e-02
3.438742831349372864e-03
-1.107626557350158691e-01
-3.922484815120697021e-02
-9.564147144556045532e-02
2.734581939876079559e-02
-7.782125473022460938e-02
-1.576801575720310211e-02
-6.065021827816963196e-02
-4.432680830359458923e-02
1.175769045948982239e-02
-6.297500431537628174e-02
-4.434007033705711365e-02
-4.572673141956329346e-02
-3.593586012721061707e-02
-1.102570742368698120e-01
-7.608554512262344360e-02
-8.408420532941818237e-02
-1.098190769553184509e-01
6.008114200085401535e-03
-6.832594424486160278e-02
-9.369873255491256714e-02
-1.227130517363548279e-01
-9.367753565311431885e-02
-8.104102313518524170e-02
-1.002658754587173462e-01
-8.727779239416122437e-02
-4.214535653591156006e-02
-1.021544709801673889e-01
-1.584489196538925171e-01
-7.645640522241592407e-02
-5.779389292001724243e-02
-2.290511131286621094e-02
-1.838353723287582397e-01
-8.053639531135559082e-02
-1.780697703361511230e-01
4.073454439640045166e-02
-1.104677245020866394e-01
1.259522046893835068e-02
-3.021964430809020996e-02
-7.554287463426589966e-02
-6.020284444093704224e-02
-9.132257103919982910e-02
-2.189818583428859711e-02
4.587779194116592407e-02
-1.074742674827575684e-01
-3.705915063619613647e-02
-9.131021052598953247e-02
-2.908261306583881378e-02
-9.974183887243270874e-02
-7.437498867511749268e-02
-3.996314853429794312e-02
-8.997424738481640816e-04
-6.288186460733413696e-02
-1.819600462913513184e-01
5.698727816343307495e-02
4.056688025593757629e-02
9.605648368597030640e-02
-4.798740148544311523e-02
-8.983813971281051636e-02
-2.833555079996585846e-02
-2.942994236946105957e-02
3.256090357899665833e-02
-1.530755460262298584e-01
-5.845946818590164185e-02
3.377605974674224854e-02
-4.348570480942726135e-02
-1.304906606674194336e-01
-1.364710275083780289e-02
-8.242357522249221802e-02
3.032638691365718842e-02
2.621349133551120758e-02
-1.274578124284744263e-01
-5.681390315294265747e-02
-5.405422672629356384e-02
3.017753548920154572e-02
-3.559539094567298889e-02
1.045423597097396851e-01
-3.782279789447784424e-02
1.187724526971578598e-02
-1.305493265390396118e-01
-5.601819232106208801e-02
-1.162060126662254333e-01
-2.928327769041061401e-03
-8.943580836057662964e-02
-9.954608231782913208e-02
-2.634608745574951172e-02
-3.984694927930831909e-02
-9.550704807043075562e-02
-1.196877285838127136e-01
-1.027284041047096252e-01
1.281307265162467957e-02
-1.075879782438278198e-01
-1.760254800319671631e-01
-1.958333887159824371e-02
4.103219509124755859e-02
-3.181928768754005432e-02
-7.886156439781188965e-03
-6.627798825502395630e-02
-9.840558469295501709e-02
-5.647054687142372131e-02
1.929870061576366425e-02
-1.115510519593954086e-02
-8.798857033252716064e-02
-8.108511567115783691e-02
2.530738711357116699e-02
-1.169277802109718323e-01
-1.081417500972747803e-01
-5.779431387782096863e-02
-4.701286554336547852e-02
-1.379965096712112427e-01
-6.583633273839950562e-02
-6.919959932565689087e-02
-1.109153684228658676e-02
-4.377631843090057373e-02
-1.700532287359237671e-01
-3.696584329009056091e-02
-1.266752332448959351e-01
-2.240730449557304382e-02
1.855181343853473663e-02
-8.299228549003601074e-02
-6.994642317295074463e-02
-1.148229390382766724e-01
-1.303498893976211548e-01
-7.360953837633132935e-02
-1.044449806213378906e-01
-2.393690496683120728e-02
-4.825775325298309326e-02
-1.055664848536252975e-02
-6.017965450882911682e-02
-2.264071106910705566e-01
-1.027617380023002625e-01
-1.656340509653091431e-01
-3.215304762125015259e-02
-2.530457824468612671e-02
-9.251860529184341431e-02
1.751842349767684937e-02
-5.973462015390396118e-02
5.108590703457593918e-03
-8.043991029262542725e-02
-1.885740906000137329e-01
-1.566970907151699066e-02
-7.462960481643676758e-02
-9.807936102151870728e-02
2.006270922720432281e-02
-1.817809231579303741e-02
-1.561729162931442261e-01
-4.470476508140563965e-02
-9.795279055833816528e-02
-6.561459600925445557e-02
-9.782547503709793091e-02
-4.836045205593109131e-02
-8.690679818391799927e-02
-5.579996109008789062e-02
1.343919895589351654e-02
-6.286317110061645508e-02
-6.412848830223083496e-02
-1.471310406923294067e-01
-5.105239152908325195e-02
-5.787523463368415833e-02
-1.057788506150245667e-01
-9.787178598344326019e-03
-1.777675300836563110e-01
6.954424083232879639e-02
-1.616659760475158691e-02
3.518373891711235046e-02
5.182246863842010498e-02
-2.476811595261096954e-02
-1.153185218572616577e-02
1.241134293377399445e-02
4.002796020358800888e-03
-2.731044217944145203e-02
-4.929273575544357300e-02
3.051728568971157074e-02
-2.359264902770519257e-02
5.280988663434982300e-02
-1.723171398043632507e-02
-1.152350306510925293e-01
-8.447972685098648071e-02
-6.710104644298553467e-02
-8.946310728788375854e-02
-2.910241670906543732e-02
-2.844215556979179382e-02
-7.095530629158020020e-02
-1.105443835258483887e-01
-7.093084603548049927e-02
-7.629680633544921875e-02
-9.160456806421279907e-02
-7.999747246503829956e-02
-1.375725716352462769e-01
-9.631554782390594482e-02
-1.431920081377029419e-01
-1.152726337313652039e-01
-9.312404692173004150e-02
-9.719035774469375610e-02
-7.498517632484436035e-02
-5.461515113711357117e-02
-1.750322729349136353e-01
-9.351328015327453613e-02
-4.768132790923118591e-02
1.028995588421821594e-02
-5.500221624970436096e-02
-6.584858521819114685e-03
-1.905428059399127960e-02
-5.599531531333923340e-02
2.763392403721809387e-02
-7.997297495603561401e-02
-1.371271312236785889e-01
-2.531054895371198654e-03
-4.522588849067687988e-02
-1.148767322301864624e-01
-1.246780082583427429e-01
-4.915009811520576477e-02
9.331346303224563599e-02
-2.273064292967319489e-02
-1.392398625612258911e-01
-1.046780124306678772e-02
-5.508911609649658203e-02
-4.413163661956787109e-02
-2.978413924574851990e-02
-1.815641224384307861e-01
-8.998089283704757690e-02
-1.245409473776817322e-01
-7.406914979219436646e-02
-1.013929862529039383e-02
-7.219640165567398071e-02
-1.641958579421043396e-02
-2.981200627982616425e-02
-2.071054466068744659e-02
-9.401762485504150391e-02
-3.455585986375808716e-02
-1.244072765111923218e-01
-1.069422662258148193e-01
-4.199593514204025269e-02
-1.183784455060958862e-01
-5.943962931632995605e-02
-1.139818876981735229e-01
-2.519063949584960938e-01
-8.246842771768569946e-02
-1.491539031267166138e-01
1.612381264567375183e-02
-1.082319915294647217e-01
1.104929968714714050e-01
-6.292627658694982529e-03
1.038711145520210266e-02
-3.769072517752647400e-02
-8.621391654014587402e-02
3.053034015465527773e-04
5.329707637429237366e-02
4.503322765231132507e-02
1.338462829589843750e-01
-7.107852399349212646e-02
-3.107444196939468384e-02
3.016902506351470947e-02
3.968513011932373047e-02
-4.780231788754463196e-02
-2.191173285245895386e-02
7.644237577915191650e-02
4.494828730821609497e-02
-1.817810162901878357e-02
-2.249636314809322357e-02
5.767704918980598450e-02
1.344622373580932617e-01
-1.286244718357920647e-03
2.831491641700267792e-02
2.718052640557289124e-02
-1.735098958015441895e-01
1.032048314809799194e-01
-3.203001990914344788e-02
6.567095965147018433e-02
-4.455908760428428650e-02
-5.305991042405366898e-03
1.295783668756484985e-01
-1.026155948638916016e-01
6.077845394611358643e-02
-2.085192687809467316e-02
5.026006139814853668e-03
-6.172646768391132355e-03
-5.092255398631095886e-02
-4.948197305202484131e-02
-1.958046806976199150e-03
1.502204779535531998e-02
3.486213460564613342e-02
7.329743355512619019e-02
4.126284644007682800e-02
1.087586283683776855e-01
-5.591861903667449951e-03
1.357574108988046646e-02
-1.100624203681945801e-01
3.929482772946357727e-02
1.075747087597846985e-01
-7.875292003154754639e-02
-6.078691780567169189e-02
5.011127330362796783e-03
-8.724751323461532593e-02
9.772890061140060425e-02
3.593741357326507568e-02
8.614432066679000854e-02
4.365602880716323853e-02
-9.326088242232799530e-03
-4.165604710578918457e-02
3.026241809129714966e-02
5.166072770953178406e-02
-8.115677535533905029e-02
2.987160533666610718e-02
-2.182794362306594849e-02
7.128578424453735352e-02
2.816957980394363403e-02
9.366046637296676636e-02
1.187175214290618896e-01
3.274827077984809875e-02
2.362791448831558228e-02
-1.664735027588903904e-03
2.847431413829326630e-02
1.603775285184383392e-02
2.787423320114612579e-02
7.567695528268814087e-02
-7.062279433012008667e-02
-1.260966509580612183e-01
-4.552806168794631958e-02
3.216815739870071411e-02
8.203726261854171753e-03
-1.555498130619525909e-02
6.231229752302169800e-03
-2.753299660980701447e-02
5.089059472084045410e-02
-4.265194386243820190e-02
1.462912000715732574e-02
7.324355840682983398e-02
9.108895063400268555e-02
-3.554102405905723572e-02
5.212922766804695129e-02
1.800924912095069885e-02
3.002840094268321991e-02
2.085092104971408844e-02
1.091943308711051941e-02
-3.572342544794082642e-02
6.338895112276077271e-02
9.834165871143341064e-02
-4.224132373929023743e-02
1.231142729520797729e-01
2.863580733537673950e-02
6.299770902842283249e-03
4.847903549671173096e-02
8.923804014921188354e-02
-2.175424434244632721e-02
2.720693498849868774e-02
-5.229154229164123535e-02
-8.152025938034057617e-02
4.461601749062538147e-02
7.941205799579620361e-02
9.728888981044292450e-03
2.588342502713203430e-02
1.145919188857078552e-01
1.488336548209190369e-02
2.996199578046798706e-02
7.133346516638994217e-03
-8.835480362176895142e-02
-2.433729544281959534e-02
1.099310349673032761e-02
6.999642401933670044e-02
6.471730023622512817e-02
2.707529254257678986e-02
3.631938248872756958e-02
1.048418972641229630e-02
-1.744305156171321869e-02
1.204921752214431763e-01
6.415726244449615479e-02
3.277475014328956604e-03
6.860098987817764282e-02
7.569561153650283813e-02
1.958428882062435150e-02
3.653264045715332031e-02
7.593039423227310181e-02
1.022628229111433029e-02
-9.218934923410415649e-02
4.448794201016426086e-02
-2.099497616291046143e-02
-1.342474576085805893e-02
-9.824502049013972282e-04
-4.166919738054275513e-02
8.211389929056167603e-02
6.362058967351913452e-02
1.489611864089965820e-01
-6.185480859130620956e-03
-1.310276687145233154e-01
-1.537501905113458633e-02
-5.542800575494766235e-02
1.110306847840547562e-02
-3.744775429368019104e-02
9.956033900380134583e-03
7.804989814758300781e-02
-6.863122433423995972e-02
-1.069267764687538147e-01
8.710649795830249786e-03
9.423614293336868286e-02
1.601801253855228424e-02
7.481470704078674316e-02
-3.161399438977241516e-02
-9.926932305097579956e-02
-2.369613572955131531e-02
1.821404322981834412e-02
4.718669503927230835e-02
-4.046897869557142258e-03
5.776938796043395996e-02
-6.785179674625396729e-02
8.245302736759185791e-02
3.739484027028083801e-02
1.100784391164779663e-01
7.567561115138232708e-04
-6.698567420244216919e-02
6.946856621652841568e-03
7.011123001575469971e-02
3.083961829543113708e-02
9.739469533087685704e-05
-7.623607292771339417e-03
1.434491132386028767e-03
-2.676404779776930809e-03
3.706691786646842957e-02
4.164800420403480530e-02
2.496211556717753410e-03
-4.936450719833374023e-02
9.433262795209884644e-02
-1.116548702120780945e-01
-3.951811790466308594e-02
-1.077136024832725525e-01
5.431991443037986755e-02
4.126549139618873596e-02
-1.020937636494636536e-01
2.205665595829486847e-02
4.750882834196090698e-02
7.124794274568557739e-02
1.950529962778091431e-02
-2.321153879165649414e-02
2.832164289429783821e-03
1.292310748249292374e-02
5.354641377925872803e-02
-1.363249309360980988e-02
4.499265179038047791e-02
1.876583136618137360e-02
-9.429062157869338989e-02
3.455792367458343506e-02
-4.557133466005325317e-02
3.650133311748504639e-02
3.074707463383674622e-02
-6.613258272409439087e-02
6.579376012086868286e-02
1.622823998332023621e-02
2.566419914364814758e-02
-4.301528446376323700e-03
1.125298440456390381e-02
9.428797662258148193e-02
1.091439649462699890e-01
-2.636569365859031677e-02
2.719048410654067993e-02
-1.383224427700042725e-01
-1.381412800401449203e-02
1.906646229326725006e-02
3.975191339850425720e-02
5.101875215768814087e-02
-8.987673372030258179e-02
-5.616615340113639832e-02
4.946351423859596252e-02
3.368439851328730583e-03
-2.019388414919376373e-02
-1.441178028471767902e-03
5.414909496903419495e-02
1.404644083231687546e-02
3.190651163458824158e-02
6.914547085762023926e-02
-4.391060024499893188e-02
4.588481783866882324e-02
-3.917720168828964233e-02
-3.003020957112312317e-02
5.497285723686218262e-02
-6.224803626537322998e-02
4.450461268424987793e-02
3.903817385435104370e-02
-2.239150740206241608e-02
2.256374433636665344e-02
2.744540385901927948e-02
8.375760167837142944e-02
-3.374420851469039917e-02
-2.424675039947032928e-02
-1.470989809604361653e-04
-3.961347416043281555e-02
5.629231780767440796e-02
-9.567370638251304626e-03
5.361457820981740952e-03
-6.072014197707176208e-02
-5.381603538990020752e-02
-3.892531991004943848e-02
-6.027207896113395691e-02
-2.452697977423667908e-02
2.620011940598487854e-02
-2.421906404197216034e-02
3.560552746057510376e-02
-6.102758273482322693e-02
6.851527839899063110e-02
4.421998560428619385e-02
1.664477437734603882e-01
1.629404574632644653e-01
1.205941960215568542e-01
1.423076838254928589e-01
1.096025034785270691e-01
1.352014541625976562e-01
4.971744492650032043e-02
6.649172306060791016e-02
-2.133186347782611847e-02
1.167441979050636292e-01
1.594331264495849609e-01
9.496034681797027588e-02
9.800744056701660156e-02
8.436012268066406250e-02
5.038911476731300354e-02
4.765848070383071899e-02
6.414102762937545776e-02
1.394144445657730103e-01
1.232065781950950623e-01
8.009341359138488770e-02
5.817299336194992065e-02
8.667708933353424072e-02
1.872304975986480713e-01
1.779795140027999878e-01
4.905916005373001099e-02
5.059289932250976562e-02
1.449718326330184937e-01
7.779495418071746826e-02
6.976518779993057251e-02
2.965907007455825806e-02
1.331726610660552979e-01
1.426369994878768921e-01
1.730556190013885498e-01
1.142487977631390095e-03
1.732899248600006104e-01
1.102804243564605713e-01
2.932528778910636902e-02
1.329844743013381958e-01
8.304275572299957275e-02
1.735414862632751465e-01
7.023409754037857056e-02
2.675512060523033142e-02
9.840054810047149658e-02
1.210836693644523621e-01
1.033860296010971069e-01
4.369133338332176208e-02
1.038916110992431641e-01
3.592484816908836365e-02
1.376772820949554443e-01
3.307153657078742981e-02
1.003468185663223267e-01
3.142751753330230713e-02
1.099960878491401672e-01
9.796889126300811768e-02
7.079660147428512573e-02
1.574592441320419312e-01
1.555371582508087158e-01
1.561434268951416016e-01
8.976791799068450928e-02
1.142677888274192810e-01
1.057287678122520447e-01
7.024361938238143921e-02
4.321527481079101562e-02
2.129953540861606598e-02
3.481209045276045799e-03
2.716634608805179596e-02
-1.605268195271492004e-02
3.269245848059654236e-02
8.192750066518783569e-02
9.307116270065307617e-02
1.059424281120300293e-01
1.425238698720932007e-01
1.055744886398315430e-01
3.610328584909439087e-02
1.355840265750885010e-01
8.854127675294876099e-02
5.361942201852798462e-02
1.237844452261924744e-01
5.377034097909927368e-02
6.027370691299438477e-02
6.293677538633346558e-02
7.040052860975265503e-02
6.532876193523406982e-02
1.357689201831817627e-01
-1.430788077414035797e-02
9.323702752590179443e-02
7.091819494962692261e-02
7.957379519939422607e-02
1.135225817561149597e-01
1.629753559827804565e-01
3.000479191541671753e-02
4.763134196400642395e-02
6.618945300579071045e-02
1.381624788045883179e-01
6.449505686759948730e-02
8.647536486387252808e-02
1.736108660697937012e-01
5.918863788247108459e-02
1.231781393289566040e-01
1.059541180729866028e-01
6.469878554344177246e-02
4.857277125120162964e-02
7.267253845930099487e-02
8.749946206808090210e-02
1.244851052761077881e-01
1.120483204722404480e-01
1.574009843170642853e-02
1.225543618202209473e-01
6.711336225271224976e-02
1.205793991684913635e-01
1.235908418893814087e-01
1.787456721067428589e-01
7.452310621738433838e-02
1.604489833116531372e-01
6.007860600948333740e-02
8.453740179538726807e-02
6.114433705806732178e-02
6.560271233320236206e-02
7.114744931459426880e-02
1.384616345167160034e-01
5.542662367224693298e-02
6.649202853441238403e-02
1.474864184856414795e-01
1.710853911936283112e-02
9.302211552858352661e-02
1.679751574993133545e-01
1.292752325534820557e-01
1.102428212761878967e-01
1.318992823362350464e-01
3.627585247159004211e-02
7.470455765724182129e-02
6.579910218715667725e-02
7.883129268884658813e-02
1.632061302661895752e-01
8.209417760372161865e-02
1.005679070949554443e-01
7.733897119760513306e-02
1.223721131682395935e-01
1.402136087417602539e-01
1.304537802934646606e-01
1.404277980327606201e-01
1.181106269359588623e-01
9.246373921632766724e-02
5.438012257218360901e-02
1.229166314005851746e-01
8.065765351057052612e-02
2.280221553519368172e-03
2.744682133197784424e-02
8.343436568975448608e-02
1.095656082034111023e-01
1.123485639691352844e-01
5.630779638886451721e-02
6.144842505455017090e-02
1.298815160989761353e-01
8.728346228599548340e-02
1.122522428631782532e-01
5.549465119838714600e-02
2.481436431407928467e-01
1.207162961363792419e-01
1.135246157646179199e-01
3.547948971390724182e-02
5.153347551822662354e-02
4.941546916961669922e-02
8.701187558472156525e-03
6.000812724232673645e-02
8.253514766693115234e-02
7.302458584308624268e-02
1.036886200308799744e-01
5.912465974688529968e-03
1.469216644763946533e-01
1.524722725152969360e-01
6.108835339546203613e-02
9.500271826982498169e-02
1.182408556342124939e-01
1.997554115951061249e-02
8.637858182191848755e-02
1.199518591165542603e-01
9.806592762470245361e-02
1.239617988467216492e-01
1.120568290352821350e-01
8.283902704715728760e-02
7.923357188701629639e-02
3.990803286433219910e-02
1.360804885625839233e-01
1.545672863721847534e-01
1.601417064666748047e-01
1.590332388877868652e-01
1.195372790098190308e-01
1.479085832834243774e-01
8.561705052852630615e-02
7.401971518993377686e-02
1.352837979793548584e-01
6.536944955587387085e-02
9.035318344831466675e-02
6.353006511926651001e-02
8.563482761383056641e-02
1.015859190374612808e-02
5.186416208744049072e-02
8.003134280443191528e-02
9.066287428140640259e-02
3.702030703425407410e-02
1.847381740808486938e-01
2.614451013505458832e-02
3.614944219589233398e-02
8.491326868534088135e-02
8.264276385307312012e-02
1.139506101608276367e-01
9.696201235055923462e-02
2.077669650316238403e-01
3.884627949446439743e-03
1.075011864304542542e-01
1.248407065868377686e-01
1.192064434289932251e-01
3.765129670500755310e-02
6.310165394097566605e-03
2.954686246812343597e-02
1.475068926811218262e-01
5.755138397216796875e-02
4.511264339089393616e-02
-2.838035579770803452e-04
1.046682819724082947e-01
1.456546783447265625e-01
7.953510433435440063e-02
8.273059874773025513e-02
4.283545166254043579e-02
2.822364680469036102e-02
7.045663893222808838e-02
-5.753807350993156433e-02
1.396170705556869507e-01
5.574115738272666931e-02
7.634235918521881104e-02
1.474717110395431519e-01
1.325758397579193115e-01
1.115367114543914795e-01
8.580961078405380249e-02
1.447667777538299561e-01
7.418256998062133789e-02
5.194862186908721924e-02
5.120619386434555054e-02
1.347472518682479858e-01
1.484846472740173340e-01
1.108553037047386169e-01
1.164605990052223206e-01
8.579213917255401611e-02
6.901572644710540771e-02
8.613687753677368164e-02
2.051367461681365967e-01
1.236544400453567505e-01
9.853664040565490723e-02
4.685369506478309631e-02
6.578166037797927856e-02
1.504429876804351807e-01
7.794015109539031982e-02
1.037897616624832153e-01
